[[[-0.07890600778165636, 0.0, 0.30105102046235344, -0.05547737963700651, -0.10441229963095192, 0.023859387744848116, -0.000495896582042845, -0.1266294027485418, -0.0013109484313717022, -0.005013391988473058, 0.0, 0.0006388228469123437, -0.19202998356575937, -0.0015284723307487226, -0.0008934495455400762, 0.0, 0.0, -0.17584956836236926, -0.09620764289461915, 0.015296459076405857, -0.0012467842421449657, -0.0010627824410799163, 0.007452078073405249, 0.08453780677571442, 0.035932027040056054, -0.019291396148670925, 0.0, -0.26189016950685196, 0.0, 0.05843732931070758, 0.004190862993479623, 0.09930577404302392, -0.008308834933391797, -0.0005606389054069741, 0.010919040576715267, -0.021457184829966516, 0.18216721070311231, 0.010074294885527057, 0.1661188990772393, -0.0007480802001642165, -0.0008635255891187178, 0.1011550672629996, 0.05859673756336254, 0.04771616638799819, 0.0, -0.0003462152765923062, 0.0, 0.0021471164339224766, 0.0, 0.0, 0.0010796054733372275, 0.022007439356435076, 0.0043748076543726104, 0.0, -0.08980063714791127, -0.05107678480011955, 0.0020317928699842736, -0.2352863226533006, -0.16050567305055796, 0.0003246165584096557, -0.25672863691961434, 0.033285988916837685, -0.00047475551832437647, -0.0022949980407131836, -0.0003938931585360566, 0.0, 0.055165581325881376, -0.00195878924651819, 0.5075945594859129, 0.0, 0.005799976893481947, -0.0003001454470812918, -0.1111616951190882, 0.06718300601969472, -0.00016665157784734113, 0.0, -0.02906127269451287, 0.14242909386063782, -0.06817680340576385, 0.0023120978654448637, -0.05709984162619733, 0.04707368388082736, 0.049030595258086486, -0.00046095107588580445, -0.00012771162524022206, 0.0, 0.2399614362640102, -0.052993150875142246, 0.0, 0.09547802228468957, 0.025575798534880144, -0.16991310134831103, -0.0017668836397657923, 0.00022698374291959828, -0.0010311181929524304, 0.0, 0.21172990515694648, -8.537898438583704e-06, -0.12107129973857446, -0.09730309937065626, -0.006498254000943865, 0.0, 0.250391734802056, -0.016467448153324484, 0.0017370123829243877, 0.0010600692173681897, 0.0, -0.0008875731407308035, 0.0008369255823823412, 0.01017577124182491, 0.0, 0.0, -0.01770781757160706, -0.00029403525749725583, -0.0008348619807878922, -0.12014816378445992, 0.14103367010942378, -0.006540218753947833, 0.010463486545986259, 0.08807332275676084, -0.32377532149711613, 0.18739583329842963, 0.0, 0.0, 0.01058381387857216, 0.0, -8.020903362121214e-05, -0.0020700824422082665, 0.0, 0.0, -0.005845360315191811, 0.001229175359599497, -0.00017163273982051723, -0.003488091882673968, 0.0, -0.0017877331927958961, 0.0, -0.0013268786813157645, -0.0015301638838203246, 0.29381467609124196, 0.1387474773340093, -0.008672912770285961, -0.0009437099385399617, -0.0302914980591584, 0.0, -0.0004221729979852024, 0.0, 0.0537413217095706, -0.0005046513347124605, 0.11340187573704616, 0.0008363275361971177, -0.0004929421432148649, -8.224779543710957e-05, -0.19232051510354248, 0.0, -0.0015663283394882453, -0.0005475171448555737, -0.001103361711726811, -0.000722557302752429, -0.09812201920364418, 0.0, -0.0006343632273754136, 0.0, 0.009379549818097827, 0.28605520841176507, 0.0, -0.05860623709763905, 0.0049811097411001995, -0.08197665457495193, -0.002008535742173415, -0.003156773518384836, -0.00015402026219488277, 0.0, -0.023776461221992506, 0.0, -0.030214655910728035, 0.0, 0.0, 0.011526296811652976, 0.0, -0.18663305833138752, -0.13350248985536534, 0.0, 0.28649638215690776, -0.14380272240838926, -0.11850772308749884, 0.12017422860134387, 0.0, -0.0015497018486948174, 0.00013221504713885337, 0.16481387804010644, 0.09749817288732299, 0.009363478321898122, -0.0021795540085426625, 0.0, 0.0, -0.008301780789759816, 0.0, 0.0, 0.011134030187335152, -0.0024888564658201934, 0.027134369990535673, -0.0016067595873586484, -0.009774684485104468, 0.0, -0.0008718857235640724, -0.06300241993755777, -0.18379180627489186, 8.780062399487055e-06, -0.0005056165492310829, -0.2124714602699493, 0.0, 0.4441752567070803, 0.0, -0.1540569858817624, -0.07149041859487354, -0.0011579266583722494, -6.0618839290977755e-05, -0.029027732625903094, -0.0815208362489463, -0.03935659084396836, 0.0, -0.12602161270520607, -0.0005358255273256487, -0.09730566703413049, -0.06067914190433629, -0.009526874765107664, -0.0022588307126120023, 0.10527464230578178, -0.001705253163012674, -0.6025699550028463, 0.0, -0.0001658172057915057, -0.0010335789543032146, 0.1538063950431243, 0.007509988802805662, 0.1893055233267049, -0.044117722676308244, 0.006761626121022966, -0.0010055185917246278, -0.3179400189864874, -0.00025197459553407526, 0.002397714849902537, -0.05925584738938319, -0.23202391710019718, -0.0013291846886921447, 0.03378615190772844, -0.0015068269529224024, -0.2312855349641691, 0.0, -0.4939581700690004, 0.2020776864770158, 0.0, -0.009166976345241476, -0.032470744277182204, -0.024434446666377955]], [[-0.10428659798485304, -0.10175652505519017, -0.08441243142555901, -0.2010358923086219, -0.10889217891338587, -0.13880311567595663, 0.029802146808235605, -0.36133425605941966, 0.06451993793850293, -0.08927517454758922, 0.043697114103843, 0.06175959805917577, 0.2461631857312773, 0.34241949748602507, 0.34700256518888484, -0.016677008432649205, -0.25692090031843096, -0.1785727880584806, 0.3549630590896641, -0.26197082918035636, 0.11385587051353063, -0.19883832020775535, 0.0942009105589279, -0.11092016118780819, 0.011988912750340508, -0.0639141634095726, 0.018605647843429638, 0.10895573004601221, -0.3978076375798904, 0.23061185177707372, 0.42379334749881753, -0.11672408817004806, 0.15496979300721003, 0.14701963859664993, 0.0933930348677729, -0.28505071896620976, 0.05218094537472701, -0.1417375818465052, -0.09726042669274058, 0.14601970272511033, 0.008822330156881402, -0.43825265158816895, -0.1369198893837303, -0.22470835681702173, -0.0627727566978538, -0.2133990447215654, 0.08187625738130125, 0.4655049062382228, 0.012312555524170187, -0.15120799648852604, -0.3299292317403523, -0.024457177353106895, -0.022828489142774282, -0.17506300573724617, 0.16150070246775827, -0.09680026560879698, 0.5531016729622132, -0.21813879737797934, -0.12017283728569146, -0.25874631503700246, 0.10030015999204744, -0.13609048772176827, -0.0007632605735787612, -0.04951058324415713, -0.006557785411627248, -0.07090076066585173, -0.2128077877148187, 0.18519943609946687, -0.21065527488626445, 0.19363970963762792, -0.10479882286897078, -0.2022635648203904, 0.7561768827859994, 0.1706642736068689, -0.1996409913970141, 0.02734151811278385, 0.1787998055511576, 0.1015780858715344, -0.4343725488044478, -0.09913704616956608, 0.1743245274215345, -0.172743665141866, -0.412831117698714, 0.11762589719304867, -0.0285226525165402, -0.4766496189659079, 0.03574573079900298, -0.0416157217488295, -0.20678190399082927, 0.04358057582019664, 0.18475792688893886, -0.26744215267508387, -0.12135728448092581, -0.4079087199887612, -0.06034737989663605, 0.05659111186518327, -0.4128311414383193, -0.12008761823969821, -0.01099040058354733, 0.02896084697319768, -0.10639051627519025, 0.00840694226782202, 0.07349716202033853, 0.014756994961027229, -0.20125334577339984, -0.27054466663520416, 0.16071857886594337, 0.8889420300807688, 0.17864425185384192, 0.3415992117663273, -0.4033277153992488, -0.1816942792979311, -0.562703526505236, -0.0521905798028624, 0.3389607781669393, 0.7330802591764803, -0.07776612621149002, 0.4132939068873747, -0.0859161218376108, 0.004066116748035469, -0.019757625084791817, 0.0027390710439430615, -0.15802300881150363, -0.15866549721922757, 0.19065746691567131, 0.3023586179775374, -0.12463615524579688, 0.02036711631784178]], [[0.28206623650878276, -0.718372292014807, -0.24871739949923916, 0.41158588998712636, -0.42356378245551096, 0.018538082907439978, 0.34515174220395195, -0.37549148490701584, 0.4693635551148462, 0.2394394521555921]]]